{
  "nh": 100,
  "ns": 4,
  "na": 3,
  "net": {
    "W1": {
      "n": 100,
      "d": 4,
      "w": {
        "0": 0.0035006898868974643,
        "1": 0.005819935946888774,
        "2": 0.00463054490439538,
        "3": -0.004340629246861991,
        "4": -0.019292425931631774,
        "5": -0.03097520320358681,
        "6": -0.0038514829321130953,
        "7": -0.0035955709190297366,
        "8": 0.022607452644650246,
        "9": -0.0030795837264240423,
        "10": -0.0015556359122980297,
        "11": -0.0060549809622330525,
        "12": 0.010629245610006922,
        "13": -0.019592729107327275,
        "14": 0.023715394917798463,
        "15": 0.0020479742915725505,
        "16": -0.026848391288960608,
        "17": -0.026748959323295757,
        "18": 0.005543128366761444,
        "19": 0.0014050719261466088,
        "20": -0.05147160176446411,
        "21": 0.021839724020859166,
        "22": 0.019401946694811763,
        "23": -0.010258397228996272,
        "24": 0.045831771996110646,
        "25": -0.005667042840084448,
        "26": -0.007733804681089793,
        "27": -0.004371826027660539,
        "28": -0.03055957456057066,
        "29": -0.004789852772755056,
        "30": 0.07976400245420982,
        "31": 0.03421584846000311,
        "32": 0.0002886411722986823,
        "33": -0.020467079779195634,
        "34": -0.01141777736546726,
        "35": -0.002581310941437525,
        "36": -0.06599208865665401,
        "37": -0.023456280804224697,
        "38": 0.005921631028938747,
        "39": 0.0014556499281478303,
        "40": 0.07729112744265554,
        "41": 0.009913257277859232,
        "42": -0.012906721445376846,
        "43": 0.0009733770403716101,
        "44": 0.0031331822723041987,
        "45": 0.030282911047504982,
        "46": 0.021254617928467577,
        "47": -0.011007699328616966,
        "48": 0.030147413282548604,
        "49": 0.019914020516013826,
        "50": 0.009118408542864944,
        "51": 0.0015679206885451018,
        "52": -0.022621191344274212,
        "53": 0.008374705566472504,
        "54": 0.011855951918663774,
        "55": -0.0060640797132151415,
        "56": 0.02394153195682633,
        "57": -0.025602742645262713,
        "58": 0.007048999692225559,
        "59": -0.0009215269746674535,
        "60": -0.015170424986968682,
        "61": 0.033195410965106295,
        "62": -0.0004419127828991871,
        "63": 0.003722363753632984,
        "64": -0.0026789666319840494,
        "65": -0.02854629881994739,
        "66": -0.01311762930806902,
        "67": 0.004461663548108086,
        "68": 0.055550979929789794,
        "69": -0.05469890653531188,
        "70": -0.004019901092581033,
        "71": -0.0014280034857275636,
        "72": -0.018724692478054167,
        "73": -0.03127626272840061,
        "74": -0.013356399759757425,
        "75": 0.0008255197826316432,
        "76": -0.019742132192084875,
        "77": 0.0268754599795868,
        "78": 0.0022946753301279644,
        "79": -0.0038854519121366143,
        "80": -0.027496068343320097,
        "81": -0.013111223666630398,
        "82": 0.015618127508965239,
        "83": -0.013129286263944169,
        "84": -0.12410015504959175,
        "85": 0.02289305289317557,
        "86": 0.013457291372187362,
        "87": -0.0038230618683230888,
        "88": -0.014415829066064067,
        "89": 0.024723288136452717,
        "90": 0.0002928291807962882,
        "91": -0.004554638472817875,
        "92": -0.03794920198761956,
        "93": 0.025184534570398372,
        "94": -0.00836059446727889,
        "95": 0.0020634602732200955,
        "96": 0.013094461877295207,
        "97": -0.036542720781426646,
        "98": -0.003055696058959584,
        "99": 0.007440389428656659,
        "100": -0.0026190028461604868,
        "101": 0.01051068492165287,
        "102": -0.0027196842916709946,
        "103": -0.002535820598084221,
        "104": 0.026856932386953362,
        "105": 0.00807843505047491,
        "106": -0.012443877077880387,
        "107": 0.0007110919783073886,
        "108": 0.03356501021739258,
        "109": -0.02135825849489405,
        "110": 0.0018443540395381732,
        "111": -0.0043260153377999485,
        "112": -0.04056906573571041,
        "113": -0.030833787803138103,
        "114": -0.0064477507217169305,
        "115": 0.0097916220650482,
        "116": -0.07051042018670982,
        "117": 0.053106829373744946,
        "118": -0.0032796977401274375,
        "119": 0.002801849353704752,
        "120": 0.05239998934242323,
        "121": -0.03101198934739202,
        "122": 0.005617964088456235,
        "123": -0.0050867836294688175,
        "124": -0.015566934459094307,
        "125": -0.03224098821941987,
        "126": -0.009320384136937645,
        "127": 0.003032779878963572,
        "128": -0.07803462696376368,
        "129": 0.03040648937941597,
        "130": 0.012816259758511491,
        "131": 0.006890919619779556,
        "132": 0.014608317204768984,
        "133": -0.01769618809478102,
        "134": 0.011969876709098957,
        "135": -0.01227472305344462,
        "136": 0.07595959153434778,
        "137": -0.003454608820851456,
        "138": 0.0176967611642092,
        "139": -0.012024295743411031,
        "140": -0.03845109179574296,
        "141": 0.004559632780348746,
        "142": 0.00445095692010593,
        "143": 0.002648469313036856,
        "144": -0.01080641659238724,
        "145": 0.025540049124655236,
        "146": -0.020588265787411037,
        "147": -0.0052783127996302295,
        "148": 0.0068437395431526875,
        "149": -0.0041520714794577055,
        "150": -0.0006155597666263765,
        "151": 0.009909253674577054,
        "152": -0.013168468309920633,
        "153": 0.004464019425457477,
        "154": -0.009258666162141455,
        "155": -0.012719315799401578,
        "156": 0.09558739354061727,
        "157": -0.00440719629375545,
        "158": -0.007346259867701241,
        "159": -0.004584393945139557,
        "160": 0.03178149775934501,
        "161": -0.014279255575457499,
        "162": 0.01776949698872078,
        "163": 0.0037904595893924545,
        "164": -0.013755297384878554,
        "165": -0.020190213423479635,
        "166": 0.007764567397912929,
        "167": 0.006968788317439725,
        "168": -0.05359448277745898,
        "169": 0.027016919964431483,
        "170": 0.014782647865387143,
        "171": 0.0049798330897268305,
        "172": 0.060353381599703534,
        "173": -0.011205781248767121,
        "174": 0.009240542313148175,
        "175": 0.0067829419060858286,
        "176": 0.04328498406217371,
        "177": 0.026070735452862866,
        "178": -0.014416870636985803,
        "179": -0.016986764371383616,
        "180": -0.003157800129987388,
        "181": 0.025784509818990557,
        "182": -0.019588467466409378,
        "183": 0.0014389262336222091,
        "184": -0.004539515080750479,
        "185": 0.022266300817771017,
        "186": -0.0005450217989791934,
        "187": 0.006085185298722001,
        "188": -0.016658708871378037,
        "189": -0.009321198875239196,
        "190": 0.004349144569653939,
        "191": 0.011576173762305962,
        "192": 0.04604034268578748,
        "193": -0.027150021055532426,
        "194": 0.00885785886053035,
        "195": -0.0023250781314546696,
        "196": -0.0012185807010972464,
        "197": 0.004301219517370348,
        "198": -0.017897198289906414,
        "199": 0.004603646109595869,
        "200": 0.00803955597929092,
        "201": 0.004001699663682238,
        "202": 0.013428892776069677,
        "203": 0.00087157883498706,
        "204": 0.011819732668806537,
        "205": -0.030164008654704477,
        "206": 0.003292470221843459,
        "207": 0.001885663553501645,
        "208": 0.002061937380657114,
        "209": -0.01417491929244299,
        "210": -0.032050685517406,
        "211": 0.010407182997245759,
        "212": -0.02753744280876657,
        "213": 0.005838926871550179,
        "214": -0.006461869444323471,
        "215": 0.0037273413832181286,
        "216": -0.019594893274668842,
        "217": 0.02554566162377641,
        "218": 0.0022005148972215702,
        "219": -0.0015159014279326117,
        "220": 0.031126822039064007,
        "221": -0.03706364740074237,
        "222": 0.014741529080871273,
        "223": 0.02021380579097956,
        "224": -0.07839428665983295,
        "225": 0.013329482468299904,
        "226": -0.0270741571664009,
        "227": -0.003632512495493687,
        "228": 0.05793973677498506,
        "229": -0.022661847672919053,
        "230": 0.011966396910561729,
        "231": 0.0020313576565943237,
        "232": 0.1096405103231987,
        "233": -0.06640744092895133,
        "234": -0.029120993250860924,
        "235": 0.014950228579903798,
        "236": -0.034713779555627086,
        "237": 0.013268152752564712,
        "238": -0.0034193155674685266,
        "239": 0.010144925520112402,
        "240": -0.018189773697422324,
        "241": -0.035012198506671116,
        "242": -0.019755707340273588,
        "243": 0.003608128899181704,
        "244": -0.02310085659796897,
        "245": -0.016983895378448962,
        "246": 0.004890147218228157,
        "247": -0.00030107072553466595,
        "248": 0.00786236798079191,
        "249": -0.014500389341341067,
        "250": 0.005955861710229922,
        "251": -0.007459075054183161,
        "252": 0.0362280245200335,
        "253": -0.012304576947412804,
        "254": -0.005748789479101168,
        "255": 0.0032041995194551295,
        "256": -0.04597012083071129,
        "257": 0.009620448959606499,
        "258": -0.012565151830274906,
        "259": 0.0038400502365663904,
        "260": -0.006168883570291959,
        "261": 0.021254952774760433,
        "262": -0.0011053912025340835,
        "263": 0.007148851300701765,
        "264": 0.014043149233790502,
        "265": -0.006935994936510414,
        "266": 0.00967554702122106,
        "267": -0.0035864883578750895,
        "268": 0.001913750382402863,
        "269": -0.03374920535370537,
        "270": -0.00002637411358635172,
        "271": 0.00722325322715443,
        "272": -0.015058948459536205,
        "273": -0.0038136673341536346,
        "274": -0.015054909066208285,
        "275": 0.004766730873739753,
        "276": -0.019683518697288006,
        "277": 0.014898590276641846,
        "278": 0.016689721899508264,
        "279": 0.003385051698153067,
        "280": 0.0016122724974224727,
        "281": -0.01794586371978557,
        "282": 0.007832111269562365,
        "283": -0.004164003528597046,
        "284": -0.06304482854114153,
        "285": 0.029439414006545966,
        "286": -0.09774987905576676,
        "287": 0.0017290050606615526,
        "288": 0.0075284172141695275,
        "289": -0.0188293033125126,
        "290": 0.006219811013136196,
        "291": -0.002869777463241599,
        "292": 0.012558243440481204,
        "293": -0.0493257853837899,
        "294": -0.004678099618466611,
        "295": 0.006607722047938679,
        "296": 0.04086521087042103,
        "297": -0.0439813445122718,
        "298": 0.010407524808686829,
        "299": 0.0008993560094301982,
        "300": 0.09482702441760918,
        "301": -0.02650551590871437,
        "302": -0.014935382381757397,
        "303": 0.0038732417928132256,
        "304": -0.013772212111803106,
        "305": -0.0025867408750628856,
        "306": -0.03486429937954653,
        "307": -0.009869441881831328,
        "308": -0.010164585060821938,
        "309": -0.02575257547373462,
        "310": -0.0012080060865828828,
        "311": 0.0013348665471651971,
        "312": 0.018227017800645638,
        "313": 0.002778380339316213,
        "314": 0.008031269229367567,
        "315": -0.0027722413224657598,
        "316": -0.053512161692729474,
        "317": 0.029950157339751458,
        "318": 0.001820555278625901,
        "319": 0.0023992380283489787,
        "320": -0.03078574963435045,
        "321": -0.0046576946896351385,
        "322": -0.010729413610967697,
        "323": 0.0007052347852224118,
        "324": 0.08591000138740036,
        "325": -0.008817843563355812,
        "326": 0.006304602462879795,
        "327": 0.006876330690099535,
        "328": -0.06687888628691027,
        "329": 0.0482292589593363,
        "330": -0.010715267478611628,
        "331": -0.01553639634930104,
        "332": -0.0663315416496387,
        "333": 0.00032031028176129786,
        "334": -0.02626971216752785,
        "335": 0.008264217175716551,
        "336": -0.014262342130786775,
        "337": -0.031336179019203624,
        "338": -0.0025436541034704343,
        "339": 0.003561320329189857,
        "340": -0.02326532217651678,
        "341": -0.009918982939813258,
        "342": 0.006173821700590366,
        "343": 0.018338694805048916,
        "344": -0.01671345958068941,
        "345": 0.01695851820147366,
        "346": 0.002615950467865206,
        "347": 0.006476882681300436,
        "348": 0.000612876926577052,
        "349": 0.0007662632916595587,
        "350": -0.0031050000016519877,
        "351": -0.0009321316834363387,
        "352": 0.012386236177968916,
        "353": -0.009638362141939687,
        "354": 0.023224790093615656,
        "355": 0.006935402224178786,
        "356": 0.00524874716134004,
        "357": 0.002657381557668137,
        "358": 0.0029806891670126952,
        "359": -0.004888067583193548,
        "360": 0.005882592301528428,
        "361": -0.02857748306643125,
        "362": 0.008433496928076408,
        "363": 0.01299069388855117,
        "364": 0.03201599697118507,
        "365": -0.042936350073008764,
        "366": 0.010105011940685131,
        "367": -0.005090232799767533,
        "368": -0.04528207022279016,
        "369": 0.016227058377883765,
        "370": -0.01734784688998892,
        "371": 0.0020924689493465386,
        "372": 0.07520019042866524,
        "373": -0.0288312484474528,
        "374": 0.01925206665596396,
        "375": 0.0112874352763914,
        "376": 0.020646682635845813,
        "377": -0.014740860142750292,
        "378": 0.005793018868605423,
        "379": 0.0003186177202281673,
        "380": 0.02991486198166868,
        "381": -0.01984372437817322,
        "382": 0.008311690370189851,
        "383": -0.006645995777130767,
        "384": -0.019963994726043183,
        "385": -0.01607198964420774,
        "386": -0.00656675500157727,
        "387": 0.00531563485033683,
        "388": 0.11224808534877816,
        "389": -0.04474606056394661,
        "390": -0.0009755753746116046,
        "391": 0.009897552822131932,
        "392": -0.0010648429508291323,
        "393": 0.021342172653671835,
        "394": 0.00013869005026083221,
        "395": -0.0015816537742636212,
        "396": 0.01885264822332542,
        "397": 0.023629188454151323,
        "398": 0.0010524726325504877,
        "399": -0.013586260157791425
      }
    },
    "b1": {
      "n": 100,
      "d": 1,
      "w": {
        "0": -0.0013394930960579662,
        "1": 0.0012337519877580032,
        "2": 0.002168871956340915,
        "3": -0.01200145534158064,
        "4": -0.0033174636293223673,
        "5": 0.0020193045305094853,
        "6": 0.0000830163336466972,
        "7": -0.028466606553157192,
        "8": 0.0012390563866145304,
        "9": -0.00423122270917309,
        "10": 0.0029054681067113334,
        "11": 0.00331700582336086,
        "12": -0.0032511959024866654,
        "13": -0.00041212161261251887,
        "14": -0.00664800660444913,
        "15": 0.004292605963534572,
        "16": -0.0006178218684829872,
        "17": -0.008428399548548874,
        "18": -0.001145995031480156,
        "19": 0.005167649819812822,
        "20": -0.0023199418867814237,
        "21": 0.005400354797501234,
        "22": 0.006394380704172342,
        "23": 0.008979693648909767,
        "24": -0.0081574023488082,
        "25": 0.005001861295360832,
        "26": 0.003381090148568593,
        "27": -0.001778210687974175,
        "28": -0.0050563458317672986,
        "29": 0.011622699143437961,
        "30": -0.007860095268104871,
        "31": -0.0024473465506167024,
        "32": -0.00010178262024153384,
        "33": -0.0013295693288725863,
        "34": -0.0012294404777478279,
        "35": -0.00041723299581834474,
        "36": 0.01126172204149461,
        "37": -0.003730204887495386,
        "38": 0.00823024548290905,
        "39": -0.00039213320049801714,
        "40": -0.010615745991196138,
        "41": -0.005783374160854776,
        "42": -0.0017513008370342693,
        "43": -0.009645147930469245,
        "44": 0.015098379751485603,
        "45": 0.010466397858532902,
        "46": 0.0007255310023929446,
        "47": -0.0060606653138593584,
        "48": -0.008277818979109482,
        "49": 0.00511388278781495,
        "50": -0.005922526993302058,
        "51": -0.003980838496270185,
        "52": 0.0032907573740072163,
        "53": 0.003019335585989588,
        "54": 0.003503499570597882,
        "55": -0.018438588035428152,
        "56": 0.012658236878390563,
        "57": -0.009947209879989621,
        "58": -0.008861847176583783,
        "59": 0.0014356247553249713,
        "60": -0.0002477926502415753,
        "61": -0.0030365136758213934,
        "62": -0.001149413838410599,
        "63": -0.0032976371694942307,
        "64": 0.00607508993341959,
        "65": 0.002053761668045244,
        "66": -0.0021381532574843046,
        "67": -0.0068531329309475435,
        "68": 0.0009316726482943333,
        "69": -0.0045181506070025605,
        "70": -0.002289707619994123,
        "71": 0.005300813144704356,
        "72": -0.004752565855208479,
        "73": -0.008426007901775211,
        "74": -0.0110523457890845,
        "75": -0.003796194709036382,
        "76": 0.01265859094154938,
        "77": -0.004435443614305953,
        "78": -0.0035853793413807553,
        "79": 0.005672297730529863,
        "80": 0.00367877315128323,
        "81": -0.00940806874366659,
        "82": 0.017890415410513973,
        "83": 0.007914182841636388,
        "84": -0.003423716019252747,
        "85": -0.010214981692860926,
        "86": 0.0005961902572270356,
        "87": 0.0003868799883238919,
        "88": -0.012554998504899162,
        "89": 0.00033697562487354396,
        "90": -0.012465180907075393,
        "91": -0.008750694957019554,
        "92": 0.008632949824399227,
        "93": -0.016836800428253938,
        "94": -0.0062095096564543885,
        "95": -0.003903145775063869,
        "96": -0.0017937539938571773,
        "97": -0.014064841485061859,
        "98": 0.002592200261873287,
        "99": 0.009201180531974497
      }
    },
    "W2": {
      "n": 3,
      "d": 100,
      "w": {
        "0": 0.0021391263467831156,
        "1": -0.015696932496705288,
        "2": 0.012571373423763238,
        "3": 0.004427825002908885,
        "4": -0.018330073541451407,
        "5": -0.03262806830725796,
        "6": 0.02634647292350027,
        "7": -0.01119021664960036,
        "8": -0.0026514540849908686,
        "9": -0.043239713880792306,
        "10": 0.048889997506198116,
        "11": 0.0015613990832429266,
        "12": 0.02037280794931944,
        "13": -0.012883684297496442,
        "14": 0.012209491861439267,
        "15": -0.005002782683908767,
        "16": -0.002963097631320381,
        "17": 0.027297480794270804,
        "18": -0.014058045836062136,
        "19": -0.008616105529167396,
        "20": -0.021523623394447557,
        "21": -0.07281403866865,
        "22": -0.005984837344835175,
        "23": -0.020047664893738673,
        "24": 0.004273820763790877,
        "25": -0.0009081490725076345,
        "26": 0.017850831899432474,
        "27": 0.01756073375269126,
        "28": -0.024877496047070916,
        "29": -0.036307336672603344,
        "30": 0.02578525182963515,
        "31": -0.01187139134274652,
        "32": -0.04610539874474229,
        "33": 0.004871893198222553,
        "34": 0.0440542308450792,
        "35": -0.0244606381106455,
        "36": -0.004156806329281347,
        "37": 0.004134171673955565,
        "38": -0.00878681920312096,
        "39": 0.056639986201030036,
        "40": 0.01686969258262631,
        "41": -0.008558622929668495,
        "42": -0.03182848923052614,
        "43": 0.03452262593291102,
        "44": 0.0264646528861378,
        "45": 0.0008631678479043387,
        "46": -0.001522629405991482,
        "47": -0.010973506702196848,
        "48": 0.023978639915599072,
        "49": -0.00025830161416654483,
        "50": 0.005032526172183971,
        "51": 0.004569363851718967,
        "52": 0.0011083783157292675,
        "53": -0.016365884745239753,
        "54": -0.009442589609463942,
        "55": 0.017354438029516375,
        "56": -0.047271076466492444,
        "57": 0.03220348915700713,
        "58": 0.06457118083163527,
        "59": -0.019611416890686604,
        "60": -0.012311451791223104,
        "61": -0.017563272794922702,
        "62": 0.003487655201630704,
        "63": 0.02095771897963898,
        "64": -0.025451632444128045,
        "65": -0.0013114139639212798,
        "66": 0.006312265269684483,
        "67": -0.0008832356092865305,
        "68": -0.00924779724282223,
        "69": -0.0090629221477052,
        "70": -0.0017989891341447816,
        "71": -0.04726648190591779,
        "72": 0.002040025762499605,
        "73": 0.003286212586917959,
        "74": 0.01978151293951527,
        "75": 0.054476413024508626,
        "76": -0.01055086564670836,
        "77": -0.009125450231675512,
        "78": 0.011402554256645438,
        "79": -0.028821597933623478,
        "80": -0.01923602583157117,
        "81": 0.04950901677756717,
        "82": -0.03610229005594891,
        "83": -0.03696780997499546,
        "84": -0.010793284378604372,
        "85": -0.014710437896852852,
        "86": -0.008084985881276516,
        "87": 0.0018612014790916145,
        "88": 0.007722446479924739,
        "89": 0.0012124232223786318,
        "90": 0.0021325018412943764,
        "91": 0.013458212375184256,
        "92": -0.025342930701383215,
        "93": 0.04289758673327886,
        "94": 0.010741885057573395,
        "95": 0.015621187241428941,
        "96": -0.013686028700500452,
        "97": 0.06414159365489079,
        "98": 0.0007960403319057213,
        "99": 0.013285156631987436,
        "100": 0.001677679599637848,
        "101": -0.00798663774678202,
        "102": -0.0011829940934644403,
        "103": 0.0029392574119265873,
        "104": 0.004349172035713183,
        "105": -0.0075885363769281075,
        "106": 0.006458281799771525,
        "107": 0.05350244269335759,
        "108": 0.01041564367791797,
        "109": 0.014408694613114573,
        "110": -0.013126745734268197,
        "111": -0.004672307435604361,
        "112": 0.008463313830085233,
        "113": 0.00029840654248786634,
        "114": -0.011248294374328964,
        "115": 0.0028798629084842114,
        "116": 0.008449407903033099,
        "117": -0.0035264851314773236,
        "118": 0.01613353697279612,
        "119": 0.0025055444211800207,
        "120": 0.00743776491340538,
        "121": 0.01413552956533773,
        "122": -0.005846685194329552,
        "123": -0.006056839456214645,
        "124": -0.01007680843978457,
        "125": -0.009217582578350411,
        "126": 0.008887997675653467,
        "127": -0.017818368386235857,
        "128": 0.01222063384643943,
        "129": 0.012881195727202971,
        "130": -0.004750241574975424,
        "131": 0.016204531316535573,
        "132": 0.0036856491666723947,
        "133": -0.0064699107895036445,
        "134": -0.01842238266576197,
        "135": 0.0024529824455013604,
        "136": -0.003644126696127558,
        "137": -0.007430723874172415,
        "138": 0.010398026006878683,
        "139": -0.025890346819462694,
        "140": -0.010823551139731507,
        "141": 0.001277745894000856,
        "142": -0.007881134989410836,
        "143": -0.01228135918796261,
        "144": -0.01733470086016426,
        "145": -0.007966208384566176,
        "146": -0.001991259749320399,
        "147": -0.014210344406178849,
        "148": -0.002211928483103784,
        "149": -0.005299420054450727,
        "150": -0.007470245682503197,
        "151": -0.012617680114804661,
        "152": 0.004887135915856025,
        "153": -0.0031679608248501977,
        "154": 0.019652223008360874,
        "155": -0.014236556506389737,
        "156": 0.0060338868757720135,
        "157": -0.019104011616195987,
        "158": 0.0011817364769907107,
        "159": -0.003517627199836518,
        "160": 0.036575777154881764,
        "161": -0.013676555276472893,
        "162": 0.004820306290938966,
        "163": 0.00012733776314823397,
        "164": 0.02420245849938858,
        "165": -0.017931953548491135,
        "166": -0.009562810425411088,
        "167": 0.00015907153736674216,
        "168": 0.013527750059068304,
        "169": 0.010362304155538436,
        "170": 0.002268513448593541,
        "171": -0.02473902037950628,
        "172": 0.00992585298965058,
        "173": -0.006566370457243263,
        "174": -0.011164417805015186,
        "175": -0.033652535583998784,
        "176": -0.012738118424909725,
        "177": 0.007663833946585501,
        "178": 0.004580321303351195,
        "179": 0.009597989201089728,
        "180": 0.006574742719710737,
        "181": -0.03163623633835537,
        "182": 0.012835905171306745,
        "183": 0.031979002674772605,
        "184": 0.002659732565319956,
        "185": -0.006916517483521413,
        "186": -0.003631568995336302,
        "187": 0.01839606110072107,
        "188": 0.0014426752220710974,
        "189": -0.009287585050548719,
        "190": 0.002190682398861173,
        "191": -0.014230074419818727,
        "192": 0.00845472654267898,
        "193": -0.005643063497231556,
        "194": -0.00022978552721684178,
        "195": -0.008414513912733197,
        "196": 0.014074361202971073,
        "197": -0.015017819267443883,
        "198": -0.010624892240987517,
        "199": -0.0008012499498457581,
        "200": 0.012144293101573818,
        "201": -0.021249929074511124,
        "202": 0.00033447813883769685,
        "203": -0.011641181594312888,
        "204": -0.02206071827643187,
        "205": 0.019580694644510725,
        "206": 0.0012492968709617734,
        "207": -0.012058914251034072,
        "208": -0.009872664929650226,
        "209": -0.014425827760263762,
        "210": 0.004876018916316647,
        "211": 0.030451576450743294,
        "212": 0.013420541058306668,
        "213": 0.013662154766618282,
        "214": -0.014381708166500563,
        "215": 0.01804188313071646,
        "216": -0.025741459475276188,
        "217": -0.03616941446486478,
        "218": -0.01794842460056972,
        "219": 0.022247859186888937,
        "220": 0.0005514196955933831,
        "221": 0.017997878686988277,
        "222": 0.019834214939850357,
        "223": 0.011225533060318009,
        "224": -0.028879434607625022,
        "225": 0.005814216480596465,
        "226": 0.005993501161792144,
        "227": -0.013188419077557753,
        "228": -0.034341935934883716,
        "229": 0.02931957085969565,
        "230": -0.016206885720502093,
        "231": -0.024859771191366845,
        "232": 0.0124472122684449,
        "233": -0.0043376958880956005,
        "234": 0.008882841439389505,
        "235": 0.0006055799514717059,
        "236": 0.023187274484699014,
        "237": -0.012110887249674367,
        "238": 0.014620462740378976,
        "239": 0.0006023747996969361,
        "240": -0.012974512755991922,
        "241": -0.022420732103048506,
        "242": 0.010948586330322212,
        "243": -0.013261982007843417,
        "244": 0.03405050537373741,
        "245": 0.012137429332764828,
        "246": 0.00947303549140554,
        "247": -0.017433582123135668,
        "248": -0.016440501620026957,
        "249": -0.002538046168954998,
        "250": 0.004942857511200913,
        "251": -0.025847360904579297,
        "252": -0.021282376701195514,
        "253": 0.0009691056087292727,
        "254": 0.01695916226425828,
        "255": -0.03888701583577479,
        "256": 0.006679482222802358,
        "257": -0.016772073379519966,
        "258": -0.05117123511629819,
        "259": -0.0016255633230088248,
        "260": -0.02696805675671204,
        "261": -0.008821551425325529,
        "262": -0.004635467146086245,
        "263": -0.009470763833690433,
        "264": 0.0024211436935595047,
        "265": 0.007735869344033659,
        "266": -0.005645935822059053,
        "267": -0.030691089451286614,
        "268": -0.001562749647501296,
        "269": 0.009281614794024742,
        "270": -0.012857711267088628,
        "271": -0.02203254441651301,
        "272": -0.009858793295968348,
        "273": -0.04198238464058989,
        "274": -0.03051369120921045,
        "275": -0.019382901445052735,
        "276": 0.002035103451051349,
        "277": -0.015774966904995347,
        "278": 0.00742308067276578,
        "279": 0.016309872815196143,
        "280": -0.002831953499558095,
        "281": -0.010513834973038823,
        "282": 0.03993956641501984,
        "283": -0.010668322338450697,
        "284": -0.025715007994042596,
        "285": -0.028525534549842482,
        "286": 0.00422224482965125,
        "287": 0.002413290553717948,
        "288": -0.007527659532802166,
        "289": 0.00675492649145531,
        "290": -0.02833601067579979,
        "291": -0.023934412092293366,
        "292": 0.00885429648467467,
        "293": -0.018780389743761432,
        "294": -0.007585672491415462,
        "295": -0.00832097532156648,
        "296": -0.01600765143360192,
        "297": -0.02897907998880268,
        "298": 0.018746684232845028,
        "299": 0.029913249641604765
      }
    },
    "b2": {
      "n": 3,
      "d": 1,
      "w": {
        "0": 0.04827942861117609,
        "1": 0.02271389028307509,
        "2": -0.011179755238135343
      }
    }
  }
}